40 100
ras -0.0005035409 0.0009583351 0.005277075 0.009688423 -0.01004318 -0.007990043 0.007107598 0.011095844 -0.0059364056 -0.0058428263 0.008211906 -0.0033341355 -0.003855849 0.0079505835 -0.0045783515 -0.0029907492 0.0047513302 0.0014346279 -0.008643044 -0.01133549 0.008142284 0.0051574 0.008256923 0.0002165199 0.0055843936 -0.0032786494 -0.0018445855 0.006050466 -0.007746101 -0.0025239382 -0.0064469953 -0.002350229 0.010328023 -0.010091334 -0.0028689264 -0.00011803291 0.008701595 -0.005629723 -0.0009177918 -0.004763786 -0.00900827 0.003728088 -0.008954479 -0.0040654256 0.0010339749 -0.0014368965 -0.007767852 0.0077633183 0.005798839 0.009659303 -0.0073138135 0.003923736 -0.0046676574 6.177154e-05 0.008345433 -0.004322031 0.0054103797 -0.0064167716 -0.0040616207 0.008742488 -0.0026293346 -0.00085369113 -0.0025025269 -0.0069711083 -0.0028165039 0.0049165753 -0.000919929 0.006112398 -0.0049104374 0.0031848843 0.0063370825 0.008768393 2.230467e-05 -0.00830297 0.0057112803 0.0016783703 0.007778109 0.00057796296 -0.0033222234 -0.007734899 -0.0031085585 0.0022710527 0.00571331 0.007802005 -0.00555883 0.0011321683 0.007476395 -0.0047434787 -0.0014189422 0.008506 0.0019916857 -7.1414906e-06 0.0039812746 -0.001099328 0.010979278 0.0055326754 -0.008103212 -0.007122557 0.00083135674 0.0065781297
kernel -0.008627465 0.0043446845 0.0055259657 0.0063715423 0.006717625 -0.0072136233 0.0018163262 0.008305119 -0.003956075 -0.008371604 0.0002750495 -0.010182072 -0.005002212 0.008689959 0.0038475355 0.006107132 0.00868877 0.008258898 -0.0041544163 -0.0024399215 0.002997686 -0.0046287337 0.009782811 -0.010599843 0.0059853755 0.003084322 -0.0057569705 0.0046564266 -0.0021477153 0.008113744 0.011345003 -0.0058017215 -2.8281433e-05 -0.008579379 0.003399529 0.0045295646 0.007571104 0.0065785917 0.008631625 0.009447495 0.008485242 -0.008450069 -0.009372684 0.00012734416 -0.0018642278 0.00662362 0.005972223 -0.003415962 0.002367818 0.0021113518 0.008950467 -0.009981158 -0.000676409 0.0026334315 -0.0012505742 0.008798786 0.009892236 0.007029809 -0.001135901 0.007003345 -0.009665277 0.0020849146 -0.0031313263 -0.0043005715 0.0023302983 0.008012576 0.0077980417 -0.0053412085 0.005478577 0.0076877703 -0.002885092 -0.008308434 0.0067547783 0.007555757 0.0008733869 -0.0054243235 -0.0067101987 -0.0010446117 0.004702415 -0.0026320303 -0.011650478 0.00326275 0.005190318 -0.0058615054 0.001450318 -0.0028027552 0.0013111022 -0.009981005 0.0045984867 -0.002894656 0.0014016392 -0.002006565 0.0028477896 -0.009340991 -0.0013541231 0.0032053234 0.006548764 -0.0025243782 -0.009673276 0.0044780094
fatal 8.69226e-05 0.0037207818 -0.0064003128 -0.00091065187 0.0066903136 0.0059751673 -0.0030736413 0.0052721137 -0.00952092 0.0036184182 -0.0038996502 -0.0051605515 0.009957286 0.002522032 0.007977327 -0.0072611813 0.0072262846 0.0103912875 -0.008718371 -0.007441651 -0.006337809 -0.0048376354 -0.0022560742 -0.009259362 0.007119905 -0.004760177 0.0074744504 0.005612773 -0.0067868335 0.005391052 0.0070961434 -0.008960729 -0.006872682 -0.0056455466 -0.009091768 0.00016437373 0.0005628887 0.0036499384 0.00054711 -0.0006959407 -0.0048493007 4.940271e-05 -0.0011379984 0.00705784 0.005220345 0.0031432153 0.0012404432 -0.004518927 -0.0035622604 -0.0006465277 0.0027281372 -0.0031886557 -0.0076102205 -0.008381199 -0.009416507 -0.0055677434 -0.0005866319 -0.0038619377 -0.0069385185 -0.004370812 0.003006126 -0.005012674 0.010290049 0.0024084556 -0.008660343 0.012368088 0.0076262825 0.0057195374 -0.009036808 0.0069456184 0.004843669 0.00580096 0.005740612 0.0029279701 -0.0013377822 0.00969913 0.010019609 0.0053097103 -0.0034462328 0.0013138489 -0.0010811887 -0.00905549 -0.007876163 0.00062505994 0.0013702664 -0.0064562084 -0.003479355 -0.0072135366 0.010397221 0.002414692 -0.003918005 0.0054737055 0.009878272 -0.0056934613 0.009579795 0.0059419964 0.0071633128 0.00027355418 0.008196075 -0.006977231
info -0.008156919 0.009844264 2.2349712e-05 -0.0015102299 0.0040947674 -0.004745137 0.0032036558 0.008452139 0.005410791 -0.009023627 0.009908922 0.0032821235 0.0044397363 -0.0050361603 0.008748847 -0.0030852447 0.010207085 -0.004900046 -0.008237715 0.005675356 0.0022255701 -0.002153265 0.010479771 0.0090726875 -0.010358131 0.002703554 0.005471643 0.004084365 0.0017946461 0.001364371 0.0015850051 -0.0049546445 -0.006764491 -0.0042387648 0.0035367426 0.010141664 0.009715809 -0.005676994 -0.010148938 0.009809017 0.0039181523 0.0041070017 0.006147203 -0.0023942988 0.008201481 0.0020042236 0.0027182808 -0.0038787439 -0.0025457644 -0.0021895932 0.0050518317 -0.0002728735 -0.009867958 -0.010288051 -0.0063063693 9.007492e-05 0.0026213077 0.009719367 0.0052326424 -0.0048552747 -0.00054763723 0.004170486 0.008725695 -0.0005365137 0.0035302208 -0.0039733048 -0.00081414817 0.008478897 -0.0037097414 -0.008937877 0.0063702273 -0.0036846045 -0.0001865045 0.010679581 -0.0010389738 -0.0038538496 -0.0051296605 0.008089042 -0.0061054993 0.0028485195 -0.0070768194 0.005624062 0.00458289 0.0029678156 -0.0013798431 -0.0032002383 0.01004221 0.005118939 -0.000954892 -0.008196165 -0.007186655 -0.0012937326 -0.00037381705 -0.0036628654 0.01063734 -4.266605e-05 0.0066089197 -0.0073413593 -0.0026539243 -0.005490706
0 -0.007141509 0.0019977672 -0.006837416 -0.0015012948 0.002901688 0.0047952672 0.0019560573 0.0044309157 -0.0051810076 0.0051220716 -0.005675906 0.0028846136 -0.007365836 0.0036920966 -0.0046497737 -0.0054814173 -0.0010785635 0.0063055856 0.0055132653 -0.0070077283 0.00166263 -0.0085165305 0.009095546 0.008545881 -0.0035948686 0.00085402105 -0.00020085143 0.0057588196 -0.008866654 0.0019474479 0.008256656 0.000840516 0.001716849 -0.012130268 0.007926276 -0.0044185715 -0.0023509464 0.00372648 -0.001647948 0.001406608 0.0026301374 -0.008292284 -0.009829061 0.009428902 0.0073590553 -0.008119049 0.0031563775 -0.0018466053 0.005656248 -0.0068540014 0.005024004 0.0039084577 0.009449054 -0.0052431216 -0.0015032401 -0.00692087 -0.008677471 -0.00870581 -0.0014744204 -0.007099219 0.0037746928 -0.007371984 0.0039925906 0.0014820192 -0.004590317 0.0016322822 0.010056662 0.009613116 -0.006425075 0.010108282 -0.0048504504 0.006218824 -0.0016761904 0.004349418 0.0047370517 0.00809628 -0.0018357184 0.010365056 0.0070087058 -0.008458397 -0.010335254 -0.008110026 0.003295918 -0.0019081472 -0.0067807552 -0.008781991 0.009756835 0.0019690266 -0.007579513 -0.0029244265 0.00362855 -0.005092467 0.005905319 -0.0057801595 0.0039336686 -0.007579902 0.007195678 0.004793217 0.0008731177 0.0032371145
error -0.0087583875 0.0028564646 -0.00061306695 -0.008928358 -0.010169556 -0.002608798 0.0050284164 0.006062421 -0.0077087097 -0.00922704 -0.004211508 -0.004025714 -0.006644616 -0.008272608 -0.002289168 -0.009585686 -0.0040797503 -0.0055392305 -0.0027525197 -0.003888779 -0.008425719 -0.0006694988 0.009757268 0.007076888 -0.00799723 -0.0036933143 0.0021720894 -0.0093213655 0.0012937516 0.007893728 0.0072322963 -0.010295143 -0.0039808624 -0.010836706 -0.00044900045 0.010944368 0.0066480367 0.0054454217 0.0043688877 -0.0033529233 0.010070531 -0.008800247 -0.0074863206 -0.0018444571 0.00026027818 -0.0043711816 -0.00078637793 0.0059158094 -0.00012862611 -0.0012148664 0.003820776 -0.008870599 0.007358581 0.007925869 -0.009874028 0.0025494283 0.011002166 -0.0073421043 -0.0074037598 -0.008444845 0.007274474 -0.0019009155 0.011090707 -0.0074407747 0.002282505 0.0052812546 0.00075741153 0.0025975846 -0.009650387 -0.008496043 0.0031241032 0.006861688 0.009358488 0.006738918 0.0007402023 0.009431822 -0.00908161 0.004799925 -0.0004006847 0.004911026 0.0054106778 -0.00727231 0.0059388503 -0.008717044 -0.0005743531 -0.009380465 -0.0039854334 0.009363952 -2.0498319e-05 0.0049003465 0.009652939 0.008859475 -0.0075768665 -0.0043804073 0.011488061 0.0055314833 -0.00064647564 -0.008933436 0.003043703 -0.00673581
interrupt 0.008148682 -0.0041487804 -0.0008776408 0.0011959239 -0.0007016127 0.0006783478 0.006470364 0.00093454466 -0.0038104665 -0.0024764868 0.0062974645 0.0007749434 -0.00032195833 0.009979541 -0.004758785 -0.0013693293 0.01011422 0.007056215 0.0013286954 -0.009930679 0.0015011466 -0.0023867413 0.010072177 0.0008673286 0.0009427439 0.0025023802 -0.0022198814 -0.004939627 0.00017940048 -0.0014473535 0.0072106225 0.008474197 -0.00039383332 0.0017940062 -0.006246695 0.0025525228 -0.0065451902 -0.008687151 -0.006445934 -0.00896033 0.0076892287 -0.0064721797 0.008352952 -0.0071399086 0.0039890027 0.009088485 -0.007875341 -0.010809932 -0.0039000367 -0.002629504 0.00017378916 -0.009034483 -0.008867986 0.0025588071 -0.008377352 -0.008954499 -0.0018871839 -0.008456648 -0.0072419927 -0.008761764 -0.00065218395 -0.005124431 0.0073312144 0.0018493497 -0.0038565702 0.0072725657 -0.0060795867 -0.00445907 -0.008200308 -0.003932527 -0.0014993009 0.006754642 -0.0021751993 0.0054808483 0.0076487665 -0.006849752 0.004875906 0.0068909763 -0.0031979142 0.007193566 0.005194101 -0.006667014 -0.006695149 0.002954686 -0.0016378217 -0.0064517837 0.010054403 -0.005002822 -0.0057936995 0.00075519126 -0.0024405976 0.00032116758 -0.0034184146 -0.0010056363 -7.226608e-05 0.0009893334 0.00879321 -0.0058419174 -0.0016662745 0.00554613
instruction 0.008197706 -0.0042794277 0.009062187 0.008362619 -0.0046803774 7.703326e-05 0.004356925 -0.0035125264 -0.005722153 -0.007052978 -0.00038041806 -0.0006387845 0.004563831 -0.0022029635 -5.5150806e-05 0.002230945 0.0052361973 0.000101717196 -0.0064416383 -0.0095294155 0.00026822183 0.0067169135 0.0018838798 -0.009073721 -0.008157038 0.006642599 -0.0039246343 0.0063101123 -0.0067101787 0.008784303 -0.0063683297 0.003024604 -0.0008586488 -0.0074379756 -0.0033228206 -0.0007657908 -0.0053368597 -0.0012374511 -0.00792208 0.0026776283 0.009157733 -0.0025896113 -0.0009519076 0.0035294201 0.008954062 -0.0061076563 -0.0067928284 -0.0033604663 0.009340626 0.00092348654 -0.008504923 -0.0015471476 0.009309005 -0.007788963 -0.005369762 0.009338299 -0.008862421 0.003989525 0.0005860345 0.006418447 0.008099655 -0.003020136 -0.003649183 0.009067358 0.0018244023 0.006797664 -0.009506645 0.009730237 -0.0018898618 -0.00586373 0.0031646632 -0.00039300098 0.0050521474 -0.0020312532 -0.003926722 0.0025811794 0.008359757 -0.004724895 0.0024483996 -0.007738757 -0.0073189805 -0.0005613795 -0.008735751 0.002947812 0.0016434769 -0.0025130962 0.0053732786 0.009793575 0.008823687 -0.0015623961 0.0020679934 -0.004099367 -0.008192133 0.0060372576 -0.0016881704 -0.0005804203 -0.0016415534 -0.0045582545 0.0039275326 -0.004263533
ciostream -0.0095161 0.009479236 0.004337258 0.009654403 0.006240838 0.0023077147 0.010274958 -0.0030152781 -0.007602489 0.0028289114 0.0042272713 -0.00676677 0.010177996 -0.0026931656 0.009753949 6.360763e-05 -0.004921274 -0.001791204 -0.007726519 -0.0044184043 0.00137371 0.009590635 0.010388517 -0.006998342 0.0029936559 0.0023868599 -0.0032136478 -0.00898553 0.0008708708 -0.0072663277 0.00725429 -0.006765287 0.005874086 0.008078965 -0.000574329 0.0055796467 -0.0013872727 0.0075215693 0.0033991183 -0.009113675 -0.0020415399 0.0026822304 -0.00025374145 -0.0008291133 -0.00039686754 -0.0023811506 0.00039004392 0.0029867748 -0.0038654362 -0.0036422145 0.00055910944 -0.00016470297 -0.0005989677 -0.00523449 0.0040018186 -0.002117534 0.002720753 0.00076737214 0.0055697984 -0.007268066 -0.007431339 -0.005310189 0.010718331 -0.0010559424 -0.010333585 0.0012041031 -0.0044789435 0.006249917 -0.0110735465 0.00338561 -0.008845622 0.0016783051 0.0069207265 0.007955061 -0.006745738 -0.0054127285 -0.0066515543 -0.006929619 -0.009979629 -0.0015416562 -0.002200251 -0.007675453 0.006930588 0.0016566496 0.005864588 0.0010064956 0.001650904 -0.0073473444 -0.0011037842 0.005410112 -0.0047328346 0.0010890896 0.003240642 -0.0023765967 0.010944907 0.008502091 0.0030421882 0.007062378 0.005906735 -0.005530723
socket -0.005147 -0.0063386643 -0.0075915563 0.008516667 -0.0025037588 -0.007604238 -0.0038489737 0.006603695 -0.0035712959 -0.0052663535 0.0020520994 -0.0038534729 -0.0013118511 0.0019418825 -0.0027915789 0.007761725 0.0051729907 -0.009936773 0.006086957 -0.008041879 0.0011339192 0.0045161983 -0.0040527834 -0.0025366032 0.0076643303 -0.00424268 -0.008243519 0.009439973 -0.0022508644 -0.0037091395 0.009486161 0.0033261462 0.0046454133 0.0074608023 -0.008758868 0.0062186792 0.0024147567 0.004443821 0.0013358945 0.0044214316 0.0047809323 0.0051795677 -0.0033691814 -0.0044223308 0.00019161112 0.0017574426 -0.0033783212 0.005048429 0.0045042993 0.008028312 0.0032037534 0.007829875 -0.0016552629 0.007687006 0.0035840408 -0.007914323 -0.0032744086 -0.0022306587 0.004529881 -0.0011987152 -0.003596391 0.0069903713 0.010498737 -0.0010563316 -0.006058339 -0.0030541588 -0.0048307297 -0.009531541 -2.7924943e-06 -0.0036192313 0.0030441799 0.0059609157 -0.0032075895 -0.009115471 0.0024490894 -0.006073703 0.0026269653 -0.0029702494 0.0066643003 0.0013185999 0.0023611225 -0.003093319 -0.0014216873 0.008184359 0.00156153 -0.00626317 -0.007101748 0.0013623859 0.0076564304 0.006845792 -0.008610439 0.0084275985 0.0044528046 0.0064842207 0.010585424 -0.006960192 -0.008478241 0.005651742 0.009453108 0.00353077
prefix 0.0071081715 -0.0010850786 0.008320953 -0.009126215 -0.008609612 -0.0075128567 -0.003537079 0.0067209895 -0.0046897624 -0.010020939 0.008843664 -0.004933123 0.009214057 -0.003947012 0.0042227353 0.004179137 0.004044649 -0.0028031254 0.0025522846 -0.010129513 -0.002411464 -0.0024967531 0.008369267 -0.004156137 -0.007241483 0.0044347756 -0.0013785332 -0.003240074 0.006732971 0.0050517577 -0.0026803543 -0.00028149274 0.009446552 0.0056605833 0.005995397 0.005826656 0.0029654542 -0.0016095788 -0.006900123 -0.00030861812 -0.0011361063 -0.0016830368 -0.0064283116 0.0076807807 -0.005827302 -0.008429917 -0.0029489493 -0.0027223008 -0.0071534337 0.0009921419 -0.004504161 -0.0015911101 -0.0077447537 0.0015331542 0.0030261413 0.0002378554 -0.004689108 -0.0013667014 0.0067291763 0.0034496202 -0.009706854 -0.004464237 0.0037653835 0.002841216 -0.01047491 0.0065351343 -0.008609698 -0.0073128347 0.00187644 -0.002768236 0.004014236 0.009362212 -0.0026483845 0.009877845 0.0028151618 0.010530757 0.0059711477 -0.008125312 -0.0037600412 0.007323538 0.004175321 0.008398887 0.0071742614 0.008828299 -0.009771966 0.0038262382 -0.004262899 0.0037425964 0.0074609807 0.0059543825 0.008001929 0.001327223 -0.00079852995 0.0046191565 -0.0044990485 0.00020399028 0.010298122 -0.0055578146 0.003992073 -0.008147732
message 0.009824479 0.0086276345 0.0015508585 0.005245713 0.0008747694 -0.007229154 -0.0010492299 0.007980988 -0.0054464806 -0.0055365292 0.00547493 0.0015836295 -0.0013314594 -0.002115518 0.0062731192 -0.006582886 -0.0018763077 -0.0064345947 -0.004411438 -0.010127543 -0.004147354 -0.008489764 0.002506056 -0.00911405 -0.010574162 -0.008126994 -0.007499225 0.0068709278 0.0037083537 0.001327797 -0.0020708742 -0.008355997 0.0009348326 -0.0012202758 -6.213157e-05 0.0020339547 0.0011437321 9.189535e-05 -0.00859884 -0.0059689092 -0.007997449 -0.002323785 0.0016984969 0.0078078522 -0.0013014728 -0.0032794552 0.0093719475 -0.001104366 -0.0020644441 0.008819672 0.0034022513 -0.0055841077 0.006285698 0.0041024215 -0.0072410377 -0.00032466676 0.0014055936 0.00596241 -0.0020104384 -0.0032810466 0.001010901 -3.2974174e-05 0.002455289 -0.002057944 -0.0069631585 0.009060162 0.0075486535 0.008458622 -0.010101084 0.0031468284 -0.0030752392 0.010132218 0.003797008 0.005329483 0.00338031 0.0074548414 -0.0054915533 0.0088430485 -0.0028574097 -0.0037377938 -0.003358143 0.009485061 -0.0066265394 -0.0015409407 0.0070296875 -0.00046996496 -0.0055128722 -0.006216643 0.010188894 0.0077705784 0.0052333972 -0.0033368375 -0.00887449 0.0028705567 0.008202419 -0.0054078544 -0.007156309 -0.0030396779 -0.004826814 -0.0024731292
reading -0.0019335496 -0.004715418 0.009706209 -0.008874017 0.003870247 0.004494679 -0.00095168286 0.010908487 0.008884173 -0.0072947396 -0.0054398533 -0.008269326 -0.007360891 -0.0018489547 -0.0053346446 -0.009426024 0.0024700356 0.0032395937 0.0061443504 -0.004395171 -0.00401366 0.0012655472 0.00165431 0.007530322 -0.00039392375 0.0072826496 -0.009135634 0.008757803 -0.0020771208 0.009886551 -0.0064269584 0.00055047235 0.0015042827 -0.002257271 -0.0055722212 -0.00783736 -0.0066846423 -0.007662298 0.0013079195 0.00042284004 -0.0013340992 0.005843105 -0.0026756849 -0.0009813396 -0.00806967 -0.0108935535 0.008708425 -0.0071624094 -0.005878482 0.005466159 0.007533584 -0.0072774803 0.00056856626 -0.0064828726 0.0013287194 -0.0041870503 -0.0025844194 0.0024080025 0.008227032 0.006236414 -0.010567761 -0.006666163 0.009382263 0.0026462094 -0.0053547975 0.0027558038 0.0095749805 -0.0008123654 -0.01119833 0.002362133 0.006892453 0.0068371664 0.0052352 -0.0048970766 0.00095151475 0.0008834591 0.00482724 -0.0068623456 -0.008491603 0.0011500795 -0.01032472 0.005306418 -0.00014755405 0.010629352 -0.0052675577 -0.0010654806 0.008713193 -0.00404126 -0.003462022 0.0032551126 0.003125716 -0.0026565709 0.0069518657 -0.008892836 0.0046449504 0.00091039337 0.009556879 0.005858456 0.0068683564 0.0078294305
ciod -0.009536769 0.010027806 -0.007565114 -0.0023779275 -0.005397955 -0.005697336 -0.007635703 -0.0063032154 -0.0053961235 -0.0027937135 -0.004644735 0.0050091497 -0.00912962 -0.004517514 0.009773221 0.006269492 0.008956318 0.004415738 0.00024457814 -0.0074432073 0.0064177928 0.002697094 0.008735155 0.00587981 0.0074755796 0.008731355 -0.0105302 -0.00652605 0.0012109625 0.007381635 0.008256162 0.004579724 0.008048197 -0.0069092372 0.006340911 -0.0031179364 -0.008623535 0.009411212 0.0008705205 -0.002738846 -0.002143613 -0.005136148 0.0046027983 0.004707871 -0.0020179704 -0.0082092015 -0.0036108124 -0.0013829801 0.0065432037 -0.0025639131 0.00056294195 0.0005846863 -0.0074171866 0.0016615692 -0.0015741459 0.0029222255 0.005516416 -0.0011081562 -0.0031007547 0.007384816 0.004308872 0.0059141032 0.005720852 0.009199687 0.0065265303 0.00067719654 0.008792414 0.004794386 0.003999108 -0.0007464824 -0.0015884835 -0.004042042 -0.007574457 0.0036086256 0.009730649 0.009723369 -0.001687611 0.0069759195 0.003334862 -0.0036584663 0.00068081747 -0.005749849 0.008447563 0.0059977164 0.0032989008 0.003687326 0.009438566 0.0073815156 0.00037207134 -0.0058573647 0.008766957 0.0071440707 0.0021492091 -0.0021997718 -0.004889265 -0.004257623 0.009333163 -0.003252223 -0.0062793833 0.009855244
app 0.0076676006 0.009485724 0.0013094777 -0.008074899 0.007999023 -0.0043975716 0.0061318735 0.005791659 0.0090052765 -0.010679768 0.009680175 -0.010291851 -0.0066161556 -0.008392173 -0.0054204753 0.0066865636 0.01036728 -0.0033260845 0.0034557467 -0.0049866564 0.008139147 0.0060069603 0.0010928655 -0.003991946 -0.007618727 0.004760707 0.000785522 -0.0023962066 0.0076906807 -0.0031255065 -0.008268132 -0.0031700837 0.00053897273 -0.008291594 -0.005814658 -0.0075404258 0.009623551 0.0076044244 -0.00064938224 0.007238653 0.008187759 -0.0016770147 0.0063748285 0.003960589 0.0056686304 0.0064726574 -0.0048501994 -0.0031003219 0.0012099798 0.004536646 0.0038961018 0.0047619194 0.0042993813 -0.008769374 -0.0033624144 -0.0072075585 0.010294919 0.0051679886 -0.00021730062 0.0038228687 -0.00829275 -0.0070516835 0.004298261 0.0069896043 0.0030579318 0.0075396015 -0.001984553 -0.0031829828 -0.0011776884 -0.002686684 -0.005052285 -0.007363839 0.0074051297 -0.0006135686 -0.0010690411 -0.0072718086 0.009407341 0.0016261676 0.0013210755 0.003098781 -0.008439567 0.0013060075 0.0031848776 -0.008007334 0.005026629 0.0020201027 0.008177503 0.0051540965 -0.0019730339 -0.005977397 0.0074889585 0.0018722817 0.00559422 0.0054747616 0.0029090222 -0.0059057507 0.00055305404 0.00812157 -0.0060100905 0.009372545
rbs -0.0071719573 0.004929483 0.0024301123 0.008038133 -0.0054955306 -0.005294099 -0.005512098 0.0050953147 -0.005369418 0.006925301 -0.0037885339 -0.01055712 -0.004167033 0.007681723 -0.0060929097 -0.006258999 -0.0057077673 0.006540169 0.003170273 0.0012829637 -0.0025212874 0.0059631923 -0.0051125525 -0.0024934653 -0.0067028436 -0.0008720685 -0.00283042 0.008751854 -0.00012651154 -0.0075216806 -0.0043621557 -0.008072203 0.0031810496 0.0072634844 -0.006223286 0.009701895 0.0090492675 -0.0067586154 -0.009626198 0.009520753 0.0090376735 -0.0058386517 -0.0069506317 0.008299324 0.004600018 0.0070609828 -0.007767382 -0.011175774 0.0022124534 -0.009575828 -0.0040848497 -0.0038545048 0.009279954 0.008035318 -0.0029881918 0.006088765 0.008992575 -0.0020258212 0.009168028 0.0066744946 0.0011383765 -0.004804706 -0.0039621796 -0.0024466643 0.00692329 -0.004153412 -0.0028156068 0.009619057 0.0019764374 0.00687237 -0.0074075465 -0.00047878493 0.0066367947 -0.003936109 0.008825258 0.010331421 -2.663074e-05 -0.0008092515 -0.0010241615 -0.005023366 -0.01033895 -0.0019085092 -0.0022051516 0.004991066 -0.006834339 0.004921487 -0.005586117 -0.007875191 0.009791014 0.010349476 -0.0031028471 0.003201496 -0.0053420444 -0.009955054 -0.0044875965 0.007130852 0.007292055 0.00948246 0.0071068043 0.0069215177
privileged 0.0012992905 -0.00977049 0.004583166 -0.00053109357 0.006332886 0.001716094 -0.0030724823 0.007874379 0.0015014479 -4.2802578e-05 -0.004597403 -0.008532848 -0.0077537857 0.008765749 -0.008907887 0.008985227 -0.009195078 -0.00024741836 -0.0019278227 -0.008979926 0.008646179 0.0067779343 0.003080118 0.004814741 9.5152485e-05 0.0093950555 0.0069987923 -0.0098466305 -0.004485045 -0.001243558 0.0031656125 -0.0044050314 0.0014354896 -0.0080169765 0.00275319 0.0047704745 0.004969389 -0.003133009 -0.008437224 -0.009221627 -0.000738678 -0.007408294 -0.0068255435 0.006132718 0.007263941 0.00209102 -0.007892693 -0.005762968 0.008094019 0.003939356 -0.0051574903 -0.007388374 0.0007397322 0.0033958436 0.002080028 0.0031132358 -0.005566319 -0.009864372 -0.0070559005 0.00017480955 0.0045580384 0.0044827345 0.0019462486 0.0052003236 -0.00015885185 0.004235716 -0.009122533 0.0076976414 0.0060833134 0.0051711095 0.0072472002 0.008439285 0.00080774236 -0.0016461653 0.0006157722 -0.009295657 0.008389129 -0.0063234787 0.008412105 -0.004181289 0.0005515376 -0.009204704 -0.009561513 -0.0078330515 -0.007690807 0.00032348427 -0.007179239 -0.0049613123 -0.0051674685 -0.004201063 0.0070249625 0.00481905 0.008771558 0.006982605 -0.005605935 0.0072744074 -0.00923823 -0.0025871277 -0.007776439 0.004150033
microseconds 0.0018081038 0.007672837 0.003291668 -0.006431504 0.006999885 -0.0070142327 0.009645181 0.005223664 -0.0050503896 -0.006692721 -0.0039093597 -0.0077998377 0.010321453 -0.0010450559 0.008168577 -0.010889934 0.004107175 -0.0007424412 0.007281851 -0.011088652 0.008041703 -0.0052693617 -0.004909289 -0.0064001065 -0.0041846936 -0.003392802 -0.004068731 -0.0071456213 0.00041039102 0.00079298863 -0.0001359989 0.002350186 -0.007250638 -0.006017141 0.004723701 0.010309587 -0.009077287 0.0075175473 0.004614765 -0.0038125634 0.009274871 -0.010795173 0.0071647493 0.0058495435 0.002497528 -0.006570092 -0.0044957525 -0.0051813545 0.002418293 0.0017851148 0.008510942 0.009676173 0.008419049 -0.0047343806 0.009432942 -0.00019219074 0.005865083 0.003027306 -0.0010202269 0.0031620932 -0.0063343486 -0.006971289 -0.0061538955 0.0027118765 0.005411297 0.0033399262 0.0013749206 0.0035211293 0.006385493 -0.0066975155 0.0030590696 -0.007120102 0.0049269744 0.010462218 0.009316665 0.007560746 0.008492856 0.008122261 0.0064836703 0.009808831 -0.0070747673 0.008714742 0.0053681084 -0.0013353574 0.008582775 0.0045127287 0.010795168 0.0028900253 0.011701709 0.0031726086 0.009630624 0.0032781009 0.007293827 -0.005174685 0.008131844 0.0076846466 -0.0009893161 -0.0019119603 0.0037406974 -0.0071312464
signal 0.009758478 -0.009174912 -0.0062680435 0.0033805983 0.005964871 -0.0060547492 0.0033107786 0.0108198235 -0.0076258117 -0.0076344376 -0.0045379414 -0.005015181 0.0025662007 0.01096761 0.0067838146 -0.0006399542 0.0040300936 0.008927672 0.008940841 0.004154065 0.006502715 -0.0077935974 -0.0029364533 -0.0061928234 0.0056168656 -0.0021768042 -0.009520882 0.007923775 0.008205045 -0.0022664727 0.010236256 -0.001866771 -0.003222103 -0.002516392 -0.00015717278 -0.002133613 0.0031957298 0.005937003 0.006265073 -0.0088851 -0.0016010079 -0.006652025 0.0074414453 0.0070334906 -0.003499644 0.001432569 -0.0061610444 -0.0013716952 0.010086832 -0.002429975 -0.0043282043 -0.007764799 -0.0033120895 -0.0014732317 0.0033504828 0.010020907 -0.0026110497 0.0022555625 0.009384727 0.0010989413 0.00014833093 0.008934566 0.010376738 0.008292406 -0.0070715565 0.01192207 0.0059920778 0.009529916 -0.0033790267 0.004128709 0.00744856 -0.00364487 0.0077360794 0.0033573091 0.010649435 -0.0021157858 -0.0027423042 0.0075323083 -0.00944145 -0.0064732605 -0.0084246 -0.0011633922 -0.002131166 0.007389153 0.009349123 -0.0013646507 0.0025254344 0.0018423297 -0.0006807359 -0.006733889 0.007826814 -0.0045070536 0.0050553195 0.007973993 0.004016736 0.003489036 0.004902679 -0.0026865662 0.0038408234 0.00042939914
handler 0.005692545 0.006316606 0.00212348 0.0065632584 -0.009524287 0.005884639 0.009920108 -0.0023790223 0.0008134232 -0.006870891 0.0017156374 0.001149008 0.008935606 0.0019087207 0.0028086365 4.623484e-05 0.010200139 -0.005181721 -0.0065180142 -0.0052702627 -0.0014946391 0.0050211125 -0.007044868 -0.003395138 -0.009105935 0.005287805 -0.0034953784 -0.008699253 0.0038190663 0.010072673 -0.002028046 -0.00718229 0.0036155346 -0.002742865 -0.010475743 0.009973607 -0.0068285163 -0.0045907767 -0.0035416835 -0.0054144594 0.002454757 0.008529533 0.004429031 0.008760672 0.0004518644 -0.0004513891 -0.0030003884 -0.010726328 0.0042729108 0.0023868515 -0.00865265 -0.0053780167 -0.009956142 -0.006506883 0.0038967393 0.008944824 0.0049630743 0.00277601 0.007796465 -0.0015356444 -0.0022836826 -0.009763328 0.0010355844 -0.0019535914 -0.0006590175 0.00939227 -0.007000823 -0.0032660018 -0.008225522 -0.002755863 -0.002609594 0.002337386 0.0046061617 -0.0041435384 -0.003096429 0.0022180567 0.0059732804 0.006866534 -0.0035048912 -0.0036282227 -0.007998906 -0.00093720277 0.0022300142 0.0022471745 0.0073741907 -0.0032025094 0.0013272852 -0.0056538177 0.00019743928 -0.0062837373 -0.00060868426 0.001016122 -0.008175233 0.007556655 -0.008067868 -0.009214719 -0.007671382 0.0074552116 0.0054241046 0.009471636
spent 0.0026477845 0.0016935301 -0.0020950886 0.010121639 0.0018788249 0.0029222397 -0.00038465008 0.0036538867 0.0053519974 -0.0031353282 0.0040063565 -0.002694817 0.006060441 0.005482999 0.0030057945 -0.0067191264 -0.002499958 0.005003691 -0.00617381 -0.002412027 3.0026484e-05 0.0033436995 -0.0071043144 0.008057925 -0.0024248278 -0.005234577 0.00301163 -0.0015333494 -0.008146466 -0.0030254598 0.0013537323 -0.010812452 0.0011748425 -0.0007298317 -0.0038239409 0.004483557 0.0032726782 0.010461705 0.00050352805 0.0020923573 0.0036061439 -0.0038112202 -0.009099441 0.008869533 -0.0006950778 -0.011222192 -0.0068473006 -0.006223201 0.0048488495 0.0054195337 0.0073733404 -0.007260083 0.00021135455 -0.0035916816 -0.005534262 0.007454201 0.005076684 -0.0027558273 -0.008791281 -0.0058291936 -0.0019395851 0.0066156415 0.007699611 -0.007585412 -0.011003843 0.010166773 -0.0021668957 -0.0031905791 0.0037814304 -0.0047059697 0.0060543595 0.00028107566 -0.005343514 0.0007159494 0.008493412 0.010775946 0.002809986 0.0068537653 -0.005487567 0.0002798816 -0.00798223 0.0005583741 -0.0013821356 -0.0028374807 -0.006943093 0.009012681 0.0044242567 -0.0024714996 -0.0022237329 0.009881111 -0.0058848695 0.0027209886 0.0016079034 0.006654511 0.008378302 -0.0023632213 0.0038620208 -0.0016229515 -0.009369485 -0.0025788718
calls 0.0013942291 0.007089698 0.010238915 0.009633305 -0.008484896 0.005831741 -0.0051347376 0.00071142527 -0.0002594648 0.0051674806 0.004915815 0.0032616826 0.010175708 0.0016001804 -0.005768235 -0.0072141266 0.007908676 -0.004827959 -0.0030720248 0.002626343 -0.0018213318 -0.006131406 -0.0015708947 0.0007720354 0.00159311 0.006187997 -0.0059090885 0.003305039 0.0070306864 0.0030430285 0.0064248824 -0.0059690783 0.0065251747 -0.009571441 0.0030502419 -0.008055396 -0.0020065333 -0.008768903 -0.0021793488 -0.005310742 -0.0034391554 9.9578014e-05 0.0026549946 -0.001041698 -0.0073985974 -0.006898889 0.0005294728 -0.0053297644 -0.008873133 -0.0005347496 0.007413855 0.0056392103 -0.010295176 0.0026134895 -0.006223444 -0.008907561 0.00092273735 -0.0001394828 -0.0072466456 -0.006718261 -0.003231995 0.006266377 -0.0064920066 0.0082605835 -0.0013707946 0.0029496457 0.009520966 0.005062094 -0.004821224 0.0044534216 0.0041537555 0.0067045456 0.00095051184 -0.0037825492 0.0026760818 -0.0046009314 0.0018162939 0.0061225635 0.004844605 0.009908888 -0.0092108045 -0.0057983273 0.0067485236 0.0018321308 -0.0065903594 0.00051992625 0.003583746 -0.0026323183 -0.003794235 0.0063447654 0.009978745 -0.0076005673 0.00038213618 -0.0035469 -0.0053318283 -0.0010461638 -0.0044209664 0.009071954 -0.005795998 0.0037784663
data -0.00033832295 0.0043201726 0.0021465255 0.010101493 0.00043930032 -0.0057213027 -0.0011042103 0.002573952 -0.0036158792 -0.008302243 -0.005506674 -0.007158488 0.0064028995 0.0042717373 0.008315311 0.006402969 -0.0057767145 0.0028672141 0.008455555 0.0012043687 0.0033209573 0.0058770566 -0.008486823 0.0090011805 0.006722646 0.008577501 -0.008381291 0.0062320475 0.006587531 -0.0010876047 -0.006057667 0.0050879726 -0.0067235227 -0.0059492937 0.0033989267 0.0084296195 0.00889319 -0.004337495 -0.009418269 0.009730109 0.0064956085 -0.0042115455 -0.008547251 -0.004795128 -0.003711782 -0.0034823476 0.0008481604 -0.0006255235 -0.0029505126 -0.005924659 0.009651343 -0.0048536835 -0.0073847217 0.0076233456 0.0024848403 0.008681534 -0.004242775 -0.006832202 0.00089467084 -0.0013780347 -0.009682317 -0.0018389435 0.0033779724 0.006747427 0.006588653 0.0037636317 -0.0044204765 -0.0018125322 -0.0043791565 0.006094582 -0.0062201074 0.002203873 -0.0010846682 -0.005691051 -0.006951188 0.0060854955 -0.008290576 -0.00046160832 0.0026963674 0.008036489 -0.007739296 0.0031824724 0.009931432 -0.006846572 -0.0034961684 0.0049804724 0.005494464 0.0016837294 0.0082923 0.0012275721 0.0019533336 -0.0016952758 -0.008044284 0.002906699 0.0022097852 -0.008579975 -0.00043140858 3.398639e-05 -4.0133527e-05 0.008885822
storage -0.0025476087 -0.0058070566 0.0075925672 -0.0071560354 -0.00912374 -0.0019113309 -0.008285546 0.0007143735 0.0017880348 -0.0027250806 -0.006371379 -0.0006274867 -0.0009777517 0.0037291101 0.008184066 0.005772937 0.008770813 -0.008813608 0.0093843425 -0.0027592143 0.008917972 0.0024116817 0.003807778 -0.009797901 -0.009671192 0.009078222 -0.0030536163 0.00285139 0.006378304 -0.00011664336 0.009862793 -0.0011915793 -0.009543509 -0.0074467724 -0.0011350334 -0.008433981 0.007594049 0.0037038887 -0.008956611 0.008562112 0.0091216415 0.0057012686 0.0068883095 -0.009574005 0.0006384982 -0.009499604 -0.0036909813 -5.2849362e-05 -9.319569e-05 0.001547233 0.0034006357 0.0020485155 0.005286372 0.0074539646 -0.005924232 0.008037543 0.006157731 0.00988988 0.004573758 -0.0034100977 -0.003917374 -0.00082640897 -0.0014915098 0.010003397 0.00093170867 0.0044168094 0.0034373526 -0.008825339 0.006451475 0.008414825 -0.0015756348 0.002384625 -0.006327289 -0.006034185 0.008461803 -0.0028573174 0.006935143 0.0017453603 -0.002075751 0.0032254248 -0.0043940907 -0.0018085799 0.0014384821 0.0050506387 -0.0014428277 0.00058226346 -0.0077610016 0.009563042 -0.008584219 0.007378554 0.0039699604 -0.007097454 -0.005230148 -0.008164906 -0.00497086 0.0071864487 0.009874191 0.0021803374 0.00059967884 0.009662319
critical -0.0050006434 -0.0011337535 0.0033601706 -0.006306872 -0.009997372 -0.009703051 0.009283399 0.0061912285 -0.0051857433 -0.009106955 0.0015400015 0.0023680886 -0.0011164093 0.0017938896 -0.0042254394 0.004594303 0.002150661 0.009024794 -0.010111072 -0.006009928 -0.008995904 -0.0003596244 -0.007277871 0.0048201275 -0.006615361 -0.005992579 0.0048439195 -0.008078619 0.0013424119 -0.006773051 0.010523225 0.008204135 0.0019356036 0.004892674 0.004466729 -0.005500383 0.01007486 -0.009574925 0.00784566 0.0028348588 -0.0028968551 -0.004059679 0.008915252 -0.0055028144 0.008602157 -0.006415477 0.008375026 -0.0010673706 0.008149502 -0.0029987453 0.0063735414 0.00861901 0.002259263 0.0011636592 0.0049656937 0.008111387 0.008956907 0.008620963 0.006861659 0.007844222 0.008135133 -0.0004640346 -0.00040217774 0.0018882089 -0.00049066375 0.0015260939 -0.008651872 -0.009683748 -0.0029503575 0.009282834 -0.0034053002 -0.006809544 0.0052734036 0.0013939784 0.002371784 0.0038949605 0.003612709 0.0060918243 0.0010494947 0.0012513364 0.0085469205 0.002589264 -0.004586674 0.0068559963 0.005249471 0.0025774916 -0.0028334935 0.0033695884 0.0070070815 0.007807849 0.0010307868 -0.00863088 0.00052172533 -0.00021866348 0.0043931017 -0.009304985 0.010294277 -0.0071348306 0.0058368198 -0.009485724
input 0.009670097 0.007364669 0.0013250654 -0.003263135 -0.000681598 0.00010861876 -0.00629787 0.006307678 0.002154575 0.0031865619 -0.0070345537 0.008139888 0.0006888777 0.00023966559 -0.008927309 0.003863684 0.0072372663 0.0075064986 -0.0065318495 -0.008351414 -0.005324562 -0.00059698214 -0.007913571 -0.0084618395 -0.0020622357 0.0011492001 -0.009641219 -0.0035890774 0.0005295089 0.0072137443 0.002105987 -0.0009128308 -0.007360034 -0.007572549 -0.00077488925 0.007871709 0.005651599 -0.0015081498 0.0009094959 -0.009522752 -0.0012392321 -0.005011393 0.0058041164 -0.0024730163 -0.0043337317 -0.009746112 -0.0011820332 -0.0075921323 -0.0014412596 -0.003986729 -0.0021359732 -0.0034107435 -0.008340883 -0.0014319823 0.0016557875 -0.003931288 -0.0074175554 -0.003375396 -0.009173593 -0.0009061233 0.005622629 -0.0032539084 0.003574163 0.0052254577 0.008155672 0.0062723747 0.009475714 -0.009537537 -0.008527514 -0.006436989 -0.007233394 -0.007870007 -0.0074238162 -0.0027051356 0.0017511052 -0.0026564214 -0.008766899 0.005270768 0.00073844753 0.0049168016 0.0067145326 0.0074784425 -0.0008333726 0.0039073443 -0.0050331955 0.0016645917 0.0048199357 0.0099630235 -0.002650547 0.0033722746 -0.0057101445 -0.0023201017 0.008274733 -0.0043407637 -0.0008596599 -0.009110868 -0.009139819 0.008753764 -0.00572172 0.0050008344
enable -0.0070050987 -0.0023283076 -0.007971565 0.007671424 0.005844314 0.004895166 0.008594752 1.4059757e-05 -0.009631777 0.008454179 -0.004640405 0.0073037418 0.005744591 -0.00052742823 -0.0076536536 -0.0017354698 0.006946775 -0.006808573 0.0012865509 -0.008670628 0.009096281 -0.0027740558 0.010057085 -0.0059221196 -0.009986993 -0.00863942 -0.0043337764 0.004834042 -0.00034707217 0.0096638985 0.003516816 0.003455615 0.0032184676 0.007201038 -0.0025568788 0.007971395 -0.009213041 0.0028967417 -0.0010486579 0.00048997474 0.007022431 -0.0032725357 -0.0023557716 -0.0002822142 -4.0412237e-05 -0.003925819 0.006239104 -0.0071163946 0.008221675 3.541346e-05 0.0028917533 0.003094283 -0.0004802666 0.0015104418 -0.0031493723 0.004795749 0.0005527207 -0.003128891 -0.008949046 -0.010203903 8.202258e-06 -0.006215507 -0.0005869816 -0.003953215 -0.009068333 0.0018413332 0.00584112 -0.0021522199 -0.007941358 0.0035974565 -0.00013138604 -0.0054082093 -0.00067680987 -0.0003949692 -0.0027667044 -0.009728972 0.007793328 0.004148339 -0.0027783958 0.0077359746 -0.00014164802 0.0070292857 -0.0015171414 0.007856619 -2.9411523e-05 -0.006373714 -0.00431994 0.009772662 0.0011425073 0.0017025444 0.008558751 -0.0064389026 -0.0015901064 -0.008767526 -0.006227774 -0.008442225 0.0042660106 0.0026154811 0.0055899783 0.00265231
exception 0.0021042877 0.0059152315 -0.002126737 0.0033394825 0.008247809 0.000117078685 0.0064794295 -0.006215887 0.006344092 0.0040756045 0.005312113 -0.010395572 -0.00038747428 0.0036667015 -0.0057277484 -0.0069294805 0.006825435 -0.0067328378 -0.0052861967 0.0078091617 -0.006817483 0.008633618 0.0011271152 0.0043196133 -0.0031622532 -0.0054023424 -0.009124981 -0.0005983688 -0.005190112 -0.0026630063 0.008432642 -0.008083236 -0.0061532385 -0.0061169458 -0.0067189145 -0.008340331 -0.00095106347 0.0096044345 0.0078254705 -0.005252494 -0.008069297 -0.0025866355 -0.009371785 -0.005105386 -0.005589066 0.002795157 -0.007542377 0.0008156752 0.0025034724 0.005451082 -0.0018029036 -0.009908692 0.005086789 -0.006152994 0.0049420414 0.0020733217 0.009047232 0.0016591236 -0.0019966108 0.0062980815 -0.0074330736 -0.008695743 0.004138106 -0.0023610108 -0.0044682454 -0.001315115 -0.009929073 0.00037710424 -0.0015813136 -0.0026654303 0.0027832182 0.0047175726 0.006736607 -0.007675138 -0.0046814126 -0.008590522 -0.009002791 -0.003446474 -0.001412945 -0.007990346 -0.005939954 -0.002369454 0.0064956257 0.0016390559 0.00849283 -0.008538074 -0.004219926 -0.0008045177 0.009306989 0.0015651287 0.0015416986 0.0011528212 0.0030694013 -0.00985835 0.0035397178 0.0056746006 0.0054825004 0.0043560057 -0.00813523 -0.004038853
syndrome 0.008371487 -0.00042870868 -0.009430115 0.0050329235 -0.0062442967 0.006412935 0.0055402396 -0.0044369097 0.002365764 0.0047875554 -0.0032794324 -0.001996161 0.009262339 0.009535707 -0.009336009 0.0072915303 0.010374304 -0.0027950695 0.002335976 -0.0032738314 0.008899178 -0.00017841943 0.006202462 0.009073996 0.003970176 -0.0071537835 -0.0021297974 0.0011113904 0.0019250165 0.0034102756 0.00981769 0.0039069406 0.01016403 -0.009568154 -0.0058807503 0.002440618 0.003807171 -0.000890866 -0.007131034 -0.0032438117 -0.0084312195 0.009050994 0.0035364004 -0.007945861 0.0035428868 0.003906723 -0.005690588 -0.006374986 0.001295022 0.00917889 -0.009449624 -0.00021939148 -0.0070326347 -0.0011703074 0.003104362 -0.004985036 -0.0024867852 0.0008116175 -0.006589083 0.0071361666 0.0039706407 -0.008875454 -0.0016767265 0.0033315108 -0.008762513 -0.0063856677 -0.008473093 -0.005305836 0.0082261795 0.0073880553 0.0031980108 -0.008452125 0.006225322 0.0048428946 0.00042500903 -0.008676948 -0.0018836439 0.00046515669 -0.008004818 0.0026940254 -0.0001512788 -0.007289791 -0.0081666205 0.006279104 -0.008247341 -0.005838492 0.005965085 -0.00048988254 -0.0025527424 -0.004647312 -0.0011534326 0.0052088187 -0.0057658446 -0.0054456145 -0.004600567 -0.00451726 -0.00774906 -0.009825322 0.007561463 0.008038971
special -0.00422966 -0.009152273 -0.0018318552 -0.003599403 0.0088628 0.0026515608 -0.005850696 -0.002732099 -0.010241717 0.0013054215 -0.0037426476 -0.0031961289 0.0053839386 0.00800947 0.004558881 -0.0072045345 0.0072726654 -0.009581341 -0.007112 -0.008617208 -0.002110174 0.0004527269 -0.0033131537 0.0016272212 0.008997754 0.0067053125 -0.0013081309 0.009183855 0.0014889202 -0.0015568885 -0.006215819 0.006032746 -0.008916154 -0.0027390239 0.007572197 -0.0020542503 0.0018124465 -0.007241648 0.004678545 0.0073351236 -0.009272014 -0.0036828057 0.007901073 0.003055646 0.0003514154 -5.024149e-05 -0.00988719 0.009465535 -0.0018319595 -0.004760492 0.0030334983 0.00090183667 -0.0061175763 0.0056108274 -0.0026155657 -0.0061799665 0.007481465 0.006594627 0.008645608 0.0009264364 0.00023084132 -0.008288239 0.005194929 0.009622108 -0.0010931952 -0.0010166978 -0.0038152477 -0.00036528497 -0.00829121 0.005965142 0.001756088 0.009518983 -0.0060659186 -0.0047847247 -0.005793236 -0.0069179065 0.002821285 0.0053556333 0.0011493458 0.0038688115 -0.009956566 -0.0012624972 -0.007719159 0.003161446 -0.002634362 0.008683995 -0.0031230885 0.006864279 0.004677611 0.0019595867 3.610686e-05 0.008146522 0.0025247675 0.007870319 0.0038180507 0.0055920654 0.005367471 -0.0077160797 -0.005815755 0.001160214
purpose 0.00020121103 0.0022414108 0.0011246437 0.0077047544 -0.0045651314 0.0001470444 0.0070954226 0.00261106 0.0041043097 0.003892588 -0.0010921198 -0.008642364 0.003196522 -0.008598177 -0.002551336 -0.009620901 -9.445521e-05 -0.007843879 0.0073738596 -0.0052298717 0.010078257 -0.009019749 -0.0040106457 0.0018034605 -0.0031160293 0.0015093643 -0.003850364 -0.0007905883 -0.005757391 -0.009535387 0.006529398 0.00012956504 0.006609992 -0.008059332 0.0035885673 -0.009546369 0.0077577075 0.005948179 -0.0063168714 0.008235483 -0.005476237 -0.008818951 0.0015177615 0.0032065723 -0.007845753 -0.009153502 0.00912256 0.0013556081 0.0010097567 0.0025264751 -0.0033247615 0.0016601052 0.0018713411 0.009674253 -0.0056718388 0.0023150528 0.0064748107 -0.0065528047 -0.009016331 0.008546618 0.006652355 -0.004247304 0.006038732 0.0009571258 -0.005186191 -0.00092665735 -0.004896601 0.0062669804 0.001559712 -0.008128836 1.2930569e-05 -0.0025464469 0.006848488 -0.00097415404 0.007936233 0.0021273561 -0.0038005 0.008438205 0.00285243 -0.003762053 -0.006014308 -0.0032225463 -0.005084749 0.0035480412 -0.009252313 -0.005938801 0.0035817788 0.00022041413 0.0063165086 -0.0032574947 6.379401e-05 0.002440147 0.005514122 0.0013410987 0.010093571 0.0038145871 -0.007029767 -0.001441443 -0.008393737 -0.005326258
registers -0.0021953606 -0.009613509 0.009339609 0.0020921745 -0.0013467702 -0.005748298 -0.008446761 -0.009447624 0.008786572 -0.0029500287 0.0047589666 -0.004858809 0.0101524955 0.003986431 0.0011640752 -0.0042997194 0.001631468 -0.0026592365 0.007313133 0.004064851 0.0011416733 0.0034991456 0.0040338514 -0.0069350745 0.008698903 0.0017581441 -0.00597278 0.008746392 -0.0013316546 0.008494152 -0.001239211 0.006691434 0.0027766193 -0.0050139893 -0.003852906 0.0095948 0.0017607117 -0.005997928 0.00010693776 -0.0019228993 0.0017370499 -0.008040642 0.0074210083 0.0012560233 0.008184796 0.004159738 -0.0044214684 0.0034243683 -0.00050078944 -0.009804175 0.008450838 0.009544476 0.009583775 -0.0039007678 -0.008495329 0.004899954 -0.0074319844 0.008676358 0.0026829387 0.005416742 0.0059085283 0.00017243002 -0.0017557184 0.0009803091 0.009616529 -0.0066154352 -0.0015460198 -0.0022594868 0.0043977783 0.006689364 -0.0039365566 0.003752868 -0.0042247158 0.003451403 0.008529453 0.0038390516 -0.004549447 -0.0026999859 0.007736236 0.00988892 0.0054126247 -0.0033904777 -0.0017897651 -0.006067761 -0.004215304 0.003225833 -0.006303992 -0.0065021985 0.008504499 0.009996985 0.008225981 0.0014273875 -0.008710185 -0.008001851 0.0018800842 -0.009395487 -0.007176697 0.001990084 -0.0029116902 -0.009187298
register 0.006424912 -0.008804799 -0.0072761015 -0.0015843594 0.0014643944 -0.0013589826 -0.0050644223 0.007228447 0.008574795 -0.008120968 0.0100816 0.0068728006 -0.0073415544 -0.001474883 0.0043867556 0.006813171 -0.0031850785 -0.006895464 0.0046360376 -0.009512857 -0.005590299 -0.0011897398 0.006019328 -0.0058680894 0.004600655 -0.0003910747 0.0024609603 0.006526142 0.0013342276 0.008207088 -1.4158213e-05 -0.008732257 0.009386103 -0.0058276076 0.004648877 -0.0033745603 -0.0071391114 -0.0064525064 0.0043955697 -0.00061250007 0.0016276537 -0.009324207 -0.0053097596 -0.006107273 0.008800425 -0.009038574 0.0050446484 -0.0013473487 0.00044565575 0.008975944 -0.003335983 -0.00714076 0.0005984879 0.0075232247 0.009185402 -0.0035821735 0.0029995705 0.0051272847 -0.0054864455 0.0066795847 -0.006856524 0.0018021109 0.005027757 0.0046034316 -0.0050179977 0.0033675402 0.0072994162 0.008784338 -0.010144299 0.005885406 0.0052656676 -0.0015211216 0.009675251 -0.0039468557 -0.0014348463 -0.006601974 -0.003787996 0.0005343852 -0.0034961198 -0.0051016235 0.005921192 -0.0054596025 -0.006204011 0.007848135 0.009751049 0.003774455 0.00042308136 0.0008617773 -0.0004291122 0.00740029 -0.006178703 0.00042237248 0.0044600517 -0.0025887112 0.0012549793 0.003937771 0.009967709 0.0021128368 0.0094583 -0.005827477
corrected 0.0047584753 -0.0034196158 -0.0041742134 0.0014385447 -0.0044039907 -0.006011684 0.003293403 0.009153528 -0.0068751527 -0.0099865515 -0.003098458 0.0069088745 -0.009649854 0.010173904 -0.0002456498 0.0018954951 -0.0012799938 -0.0055462085 0.0030150646 0.0057127117 -0.0067409268 -0.0011650883 0.0021316027 0.004034058 0.0069063087 -0.0034876843 0.00705614 -0.0054906164 -0.002310434 0.00966628 0.0058473432 -0.009079821 -0.0014777983 -0.009967489 -0.0017420764 0.0062845643 -0.00719211 0.0057624285 0.0058037443 -0.0036878437 -0.009441847 -0.003015804 -0.00266553 0.0038816615 0.009348973 0.0016127893 -0.0020680323 0.0023306704 -0.0064859507 -0.001186065 -0.001073436 0.009424489 -0.0059533725 -0.007393873 0.0022794222 0.0028318386 -0.006845477 -0.005667445 -0.0013626864 -0.0035992654 -0.009440498 -0.004371736 -0.002402316 0.0067687356 0.0005521528 0.0025294218 0.00034869692 -0.0032270306 0.0024019366 0.0010705745 0.0063120294 -0.00071310566 -0.008436078 0.0012527304 0.010456795 -0.0048200865 -0.0051992126 -0.0020612855 0.008410481 -0.00049111503 0.008545597 -0.008570353 0.009207606 -0.009602064 0.009324664 0.0016057985 0.0031753187 -0.005876667 0.009103625 0.0066815624 -0.0054349247 -0.00968934 0.007200168 -0.006056687 -0.008934474 0.0028565826 -0.0046767206 -0.0074387216 0.009590926 -0.0015210564
parity -0.0015188532 -0.0037578219 -0.00429052 -0.0044266526 -0.0059356485 -0.005777825 -0.007832056 0.01049809 0.005963367 -0.004577854 0.0027562843 -0.008388767 0.007696509 0.008973466 0.0009903781 -0.007359111 -0.002269414 0.004939264 -0.0030255734 0.0025094082 0.009724928 0.0044051376 -0.004518817 0.005292022 -0.0031608895 -0.006338903 0.0067104404 -0.009157021 -0.001260384 -0.00082282425 -0.007904589 -0.0017443448 0.0057848645 -0.0065238406 -0.007237041 0.0069569675 -0.003166731 -0.0076769153 -0.00012490412 -2.0780728e-05 0.0077802404 2.6248417e-06 0.0077981986 -0.00968304 0.0045503946 0.0058220965 0.0009860891 -0.003554006 0.0012752762 -0.0007487389 -0.007653994 -0.006989765 0.0009666245 -0.0023698779 0.009439879 -0.00086941186 0.006470105 0.0021644188 0.00793422 -0.00971254 0.0018837829 -0.0019028417 0.002873038 0.00010730652 -0.0071488405 0.010145267 -0.0028282495 0.0020988395 -0.007315431 0.0040989555 0.010350482 -0.00096248474 0.0071196584 0.00029111138 0.008614599 0.010185097 -0.00034125135 -0.0011653433 -0.00978464 0.010366478 -0.0034740728 0.0019020847 -0.0015309857 0.0085390145 0.008440387 0.0012373925 0.0034681004 0.0064183725 0.003002189 0.007245065 0.00027052025 -0.00240383 0.0055875066 -0.0040378845 -0.002049927 0.0090700155 -0.008808237 -0.0034778106 -0.0029815773 0.0057344195
cache 0.007904224 -0.0061193216 0.0059613534 -3.4515448e-05 -0.009545633 -0.0030558798 -0.0014187343 -0.003403078 -0.0012797982 -0.0064216168 0.00626496 0.008494781 -0.0013972771 0.0040615504 -0.00047637147 -0.0012064261 -0.006270049 0.0016663428 0.0037430471 0.006200254 0.0068788235 0.0036088154 0.005346531 -0.0076550078 -0.0017913318 -0.0057382067 0.00650317 0.007904915 -0.0043869293 0.0018366794 0.005728765 0.0010816142 0.0009959559 -0.00820813 0.009721349 -0.0064445003 -0.005652608 -0.0054643466 -0.006789427 -0.0033846241 -0.009148336 0.0005448931 -0.0038758442 -0.0024797781 0.0063587325 0.0030168083 0.0018402808 -0.0021086652 0.010252725 0.0004024873 0.0055151875 0.008831134 -0.010010155 -0.009550111 0.009889199 0.0029816416 -0.0014325344 0.004977306 -0.0044575925 -0.0067831893 -0.008814671 0.0067564817 -0.0016886245 -0.0071811085 -0.0064493744 0.007406339 -0.0024989727 -0.005980689 -0.0025530364 -0.0010407686 -0.0028410328 -0.001915881 0.004751519 0.0019403856 -0.002798129 0.0033636012 0.005245672 -0.008667273 -0.007828455 0.0068239784 -0.009998385 0.00026122545 -0.008761845 0.008644617 -0.0041498067 -0.0069783726 -0.00082445564 -0.0009971859 0.00850541 0.01005249 -0.00018457537 0.0025294502 0.005013498 -0.0005394137 -0.005205619 -0.00029997816 0.0025843943 0.008180692 -0.0036791044 -0.009866265
exceptions 0.0054486664 0.0100087505 -0.0069844387 -0.00037535565 -0.005326452 0.0061231493 0.009871695 0.00040882552 0.0048436862 0.0057663987 0.004711586 -0.00865787 0.0033119856 -0.0009905685 -0.0019354253 0.0051041795 -0.0006713624 0.0101882955 -0.000696138 -0.00032836027 -0.0020491052 -0.008551346 -0.009340351 0.0047409795 -0.0068594916 0.0031317894 0.002488325 -0.006876238 -0.0032037573 -0.0053296457 -0.008288409 -0.00039708914 0.010041932 -0.0076327245 -0.0045269234 0.008980571 0.009540416 0.009906537 -0.010361787 0.005203883 -0.0064185676 0.006484289 0.0060836007 -0.0032543442 0.0072933603 -0.008328465 0.004607827 0.0038914098 0.006173174 0.0060521965 -0.0023138784 0.003674939 -0.0063530803 -0.0066905767 0.0026272128 -0.009392428 -7.8804514e-05 0.0012991334 0.007880654 -0.0072690984 -0.0027557032 -0.004451278 -0.0047254604 -0.00014918027 0.0041942727 -0.004125854 -0.0016878669 0.008822945 -0.002007506 -0.0032244308 0.007755769 0.0013888967 9.259495e-05 0.009772789 0.008618539 0.003870178 0.003483011 -0.0017700503 0.007887073 0.0054809935 -0.006215554 -0.0062716655 -0.00050351216 -0.0077414387 0.0034251055 -0.009427415 -0.0010279635 0.0033559029 0.0036210122 0.003691616 -0.009056923 0.0032848131 0.005467872 0.0030709486 0.0082596205 0.0018416097 0.0067247953 0.008771521 -0.0010274238 -0.0007383541
alignment 0.0022622389 -0.007340187 0.005748601 -0.0047637485 -0.0034706125 -0.0021098359 0.008445549 0.0029318882 -0.0012326685 -0.0035531453 -0.0018227671 -0.0018762321 -0.0049115648 -0.0036197938 0.00036038941 0.004261927 0.0024277563 0.007188764 0.00050494715 -0.0037792188 -0.007145675 0.0059789624 0.0075019905 -0.00627818 0.0045133913 0.009664618 -0.006673995 -0.002720139 -0.009245389 0.0036821214 -0.0030582391 0.0016175766 0.009698004 -0.009312494 -0.009425738 0.0022608296 -0.007818169 -0.008977305 -0.009754318 -0.00020443222 -0.0010021315 0.0003428994 -0.0014311584 0.009207989 0.009185356 -0.0067536333 0.008776442 -0.0096703535 -0.0010723837 0.0026885471 0.0002515218 -0.003992709 0.00020242897 0.0007106481 -0.009521099 -0.0048371986 -0.0075317947 0.0039958796 -0.0010390624 -0.0077322526 0.005248251 -5.184005e-05 0.0031885996 0.00571402 -0.004665196 0.00868169 -0.007877162 -0.0032810604 -0.008028552 0.0013266474 -0.0071133845 0.0092213005 0.005976788 -0.00688821 0.006624227 0.0069648377 -0.007333075 0.005095983 -0.007920971 0.00964999 0.00388119 -0.00041738912 -0.008915227 -0.000717287 -0.0002633149 0.000661937 0.009160432 -0.002858324 -0.008146221 -0.008354758 -0.0010372346 0.0012555319 0.00029662973 -0.0026109212 0.009013802 0.00026924728 0.006833088 0.0039667054 -0.0073532197 -0.0021262227
doublehummer -0.0077620526 -0.006375636 -0.0029501077 0.007009031 -0.0012975807 0.008455863 -0.0020278383 -0.004241432 0.003506406 0.0011154982 0.00021000455 -0.0034108167 -0.005741511 0.004789818 -0.0074285744 -0.009449407 -0.008317461 0.008802998 0.003844693 0.0062863273 0.010394997 -0.0071547506 0.0048017395 0.0025431374 0.0057567786 -0.0031219956 0.008886293 -0.0056500426 0.006915221 0.007639208 -1.7802708e-05 0.004339461 0.007170969 2.6556663e-05 0.0072429916 0.0033712802 -0.001129557 0.007517605 0.003999376 -0.0030572857 0.0019131362 -0.00075920497 0.0048304605 -0.005176509 -0.003600917 -0.0016517171 0.003903106 -0.007645237 0.008334235 -0.0029128192 0.006230769 0.0026254633 0.006540823 -0.0049090027 -0.0032400973 0.0031651852 -0.0024427313 0.006237702 -0.006172842 0.0021901787 -0.001322953 -0.0010951874 0.0032549973 -0.0017512478 -0.0048733847 -0.0072891773 0.002454351 0.0056717973 -0.0069847265 0.009691947 0.0044424715 -0.005010149 -0.00058530667 0.0043933857 -0.0063354215 0.0027686837 0.005629784 0.006970939 0.0050818264 0.0042071315 -0.004115431 -0.0063334065 0.008358328 -0.0070138965 -0.0016415482 -0.0035307233 0.0073422855 -0.0062838583 0.0041949465 0.002903676 -0.0040105414 -0.008472777 -0.007806592 0.0028999744 -0.008927721 0.005966139 -0.002452081 -0.009106875 -0.005392693 0.007888594
63543 -0.0016560404 0.006699019 -0.009155891 -0.008900337 -0.0055706366 0.00056610635 -0.0069089327 -0.00852686 -0.009262686 -0.0014305528 0.007823077 -0.009276541 -0.00505465 0.0021639634 0.0035237735 -0.008959481 0.008669144 -0.007932939 0.0046142703 0.00871706 0.0059777 0.0062736683 0.008840023 0.0032753493 -0.0074130357 0.0059678797 -0.00871088 -0.0056528486 0.0057501774 -0.007359066 -0.0055719814 -0.0041897045 0.0038042562 0.0039325403 0.0017827579 0.0059399013 -0.0023873788 0.0044649397 -0.007590802 -0.0015935241 -0.0075623584 -0.00032515873 0.004595037 0.0050424985 -0.004143247 0.0011957355 0.00781549 -0.006429994 -0.0034946548 -0.0003974502 -0.0043500336 0.00848227 0.0072821258 0.00884494 0.009311807 -0.008449038 -0.0002046493 -0.0074395533 -0.0049603023 -0.009209014 0.0028990027 -0.0003688765 -0.006271457 0.008383646 0.0003972053 0.0014088005 -0.0036898577 -0.0031021687 -0.0035638504 0.008053794 0.0028352623 -0.004903265 0.0053457553 0.0013414442 -0.0020835986 0.008340081 -0.003827436 0.008026649 -0.00450736 -0.006857308 -0.005547277 -0.00416679 -0.0005472075 -0.0016224156 0.005184393 0.0052283746 -0.0010391612 0.0037028694 -0.0013085187 0.0014433888 -0.0012960389 -0.0025807125 -0.0044664657 -0.0047912183 0.000755747 0.001920844 -0.009065316 0.0060867327 -0.0018112941 -0.002912192
